FANN_FLO_2.1
num_layers=3
learning_rate=0.700000
connection_rate=1.000000
network_type=0
learning_momentum=0.000000
training_algorithm=2
train_error_function=1
train_stop_function=0
cascade_output_change_fraction=0.010000
quickprop_decay=-0.000100
quickprop_mu=1.750000
rprop_increase_factor=1.200000
rprop_decrease_factor=0.500000
rprop_delta_min=0.000000
rprop_delta_max=50.000000
rprop_delta_zero=0.100000
cascade_output_stagnation_epochs=12
cascade_candidate_change_fraction=0.010000
cascade_candidate_stagnation_epochs=12
cascade_max_out_epochs=150
cascade_max_cand_epochs=150
cascade_num_candidate_groups=2
bit_fail_limit=3.49999994039535522461e-01
cascade_candidate_limit=1.00000000000000000000e+03
cascade_weight_multiplier=4.00000005960464477539e-01
cascade_activation_functions_count=10
cascade_activation_functions=3 5 7 8 10 11 14 15 16 17 
cascade_activation_steepnesses_count=4
cascade_activation_steepnesses=2.50000000000000000000e-01 5.00000000000000000000e-01 7.50000000000000000000e-01 1.00000000000000000000e+00 
layer_sizes=11 5 5 
scale_included=0
neurons (num_inputs, activation_function, activation_steepness)=(0, 0, 0.00000000000000000000e+00) (0, 0, 0.00000000000000000000e+00) (0, 0, 0.00000000000000000000e+00) (0, 0, 0.00000000000000000000e+00) (0, 0, 0.00000000000000000000e+00) (0, 0, 0.00000000000000000000e+00) (0, 0, 0.00000000000000000000e+00) (0, 0, 0.00000000000000000000e+00) (0, 0, 0.00000000000000000000e+00) (0, 0, 0.00000000000000000000e+00) (0, 0, 0.00000000000000000000e+00) (11, 5, 5.00000000000000000000e-01) (11, 5, 5.00000000000000000000e-01) (11, 5, 5.00000000000000000000e-01) (11, 5, 5.00000000000000000000e-01) (0, 5, 0.00000000000000000000e+00) (5, 5, 5.00000000000000000000e-01) (5, 5, 5.00000000000000000000e-01) (5, 5, 5.00000000000000000000e-01) (5, 5, 5.00000000000000000000e-01) (0, 5, 0.00000000000000000000e+00) 
connections (connected_to_neuron, weight)=(0, 1.48338049316406250000e+03) (1, -1.50000000000000000000e+03) (2, 1.50000000000000000000e+03) (3, -1.50000000000000000000e+03) (4, 1.50000000000000000000e+03) (5, 1.50000000000000000000e+03) (6, 1.50000000000000000000e+03) (7, -1.50000000000000000000e+03) (8, 1.50000000000000000000e+03) (9, 1.50000000000000000000e+03) (10, 1.49734631347656250000e+03) (0, -1.06656312942504882812e+01) (1, 1.53923244476318359375e+01) (2, 1.35537099838256835938e+01) (3, 1.86962795257568359375e+01) (4, -3.58589248657226562500e+01) (5, 1.46257314682006835938e+01) (6, -3.25456733703613281250e+01) (7, 1.09118165969848632812e+01) (8, 1.77923851013183593750e+01) (9, -3.28206658363342285156e+00) (10, -1.04458885192871093750e+01) (0, -8.79164245605468750000e+02) (1, -1.49999951171875000000e+03) (2, 1.49999975585937500000e+03) (3, -1.50000000000000000000e+03) (4, 1.42289343261718750000e+03) (5, 1.49999975585937500000e+03) (6, 6.30612869262695312500e+01) (7, -7.63594970703125000000e+02) (8, 6.06846199035644531250e+01) (9, 5.18387794494628906250e+01) (10, 4.11457061767578125000e+01) (0, -7.36505222320556640625e+00) (1, -4.83573150634765625000e+00) (2, -3.50656986236572265625e-01) (3, 9.82193851470947265625e+00) (4, -5.79850807189941406250e+01) (5, 2.47175102233886718750e+01) (6, -2.47390594482421875000e+01) (7, -3.12601509094238281250e+01) (8, 4.43804817199707031250e+01) (9, 9.76191520690917968750e+00) (10, 3.36288986206054687500e+01) (11, -3.93219329416751861572e-02) (12, 2.65967273712158203125e+00) (13, 3.31946402788162231445e-01) (14, -2.33802652359008789062e+00) (15, -5.21820271387696266174e-03) (11, 2.30235219001770019531e+00) (12, 4.05068337917327880859e-01) (13, 8.34389019012451171875e+00) (14, 9.38085722737014293671e-05) (15, 5.63919687271118164062e+00) (11, -3.64101141691207885742e-01) (12, 2.10632961243391036987e-02) (13, 3.58696840703487396240e-02) (14, 2.41221356391906738281e+00) (15, 2.75492691993713378906e+00) (11, -1.72596033662557601929e-02) (12, -2.84601259231567382812e+00) (13, -2.82026243209838867188e+00) (14, 1.25775230117142200470e-03) (15, 2.71861571818590164185e-02) 
